digraph Tree {
node [shape=box, fontname="helvetica"] ;
edge [fontname="helvetica"] ;
0 [label="encoded_ST_Slope <= 1.5\ngini = 0.494\nsamples = 918\nvalue = [410, 508]\nclass = Disease"] ;
1 [label="encoded_ChestPainType <= 0.5\ngini = 0.292\nsamples = 523\nvalue = [93, 430]\nclass = Disease"] ;
0 -> 1 [labeldistance=2.5, labelangle=45, headlabel="True"] ;
2 [label="encoded_sex <= 0.5\ngini = 0.165\nsamples = 364\nvalue = [33, 331]\nclass = Disease"] ;
1 -> 2 ;
3 [label="Oldpeak <= 1.65\ngini = 0.408\nsamples = 49\nvalue = [14, 35]\nclass = Disease"] ;
2 -> 3 ;
4 [label="encoded_RestingECG <= 0.5\ngini = 0.478\nsamples = 33\nvalue = [13, 20]\nclass = Disease"] ;
3 -> 4 ;
5 [label="Age <= 59.5\ngini = 0.375\nsamples = 8\nvalue = [6, 2]\nclass = No Disease"] ;
4 -> 5 ;
6 [label="gini = 0.0\nsamples = 5\nvalue = [5, 0]\nclass = No Disease"] ;
5 -> 6 ;
7 [label="Cholesterol <= 350.5\ngini = 0.444\nsamples = 3\nvalue = [1, 2]\nclass = Disease"] ;
5 -> 7 ;
8 [label="gini = 0.0\nsamples = 2\nvalue = [0, 2]\nclass = Disease"] ;
7 -> 8 ;
9 [label="gini = 0.0\nsamples = 1\nvalue = [1, 0]\nclass = No Disease"] ;
7 -> 9 ;
10 [label="MaxHR <= 133.5\ngini = 0.403\nsamples = 25\nvalue = [7, 18]\nclass = Disease"] ;
4 -> 10 ;
11 [label="MaxHR <= 109.0\ngini = 0.5\nsamples = 12\nvalue = [6, 6]\nclass = No Disease"] ;
10 -> 11 ;
12 [label="gini = 0.0\nsamples = 3\nvalue = [0, 3]\nclass = Disease"] ;
11 -> 12 ;
13 [label="Oldpeak <= 0.4\ngini = 0.444\nsamples = 9\nvalue = [6, 3]\nclass = No Disease"] ;
11 -> 13 ;
14 [label="gini = 0.0\nsamples = 2\nvalue = [0, 2]\nclass = Disease"] ;
13 -> 14 ;
15 [label="FastingBS <= 0.5\ngini = 0.245\nsamples = 7\nvalue = [6, 1]\nclass = No Disease"] ;
13 -> 15 ;
16 [label="gini = 0.0\nsamples = 6\nvalue = [6, 0]\nclass = No Disease"] ;
15 -> 16 ;
17 [label="gini = 0.0\nsamples = 1\nvalue = [0, 1]\nclass = Disease"] ;
15 -> 17 ;
18 [label="Oldpeak <= 1.45\ngini = 0.142\nsamples = 13\nvalue = [1, 12]\nclass = Disease"] ;
10 -> 18 ;
19 [label="gini = 0.0\nsamples = 12\nvalue = [0, 12]\nclass = Disease"] ;
18 -> 19 ;
20 [label="gini = 0.0\nsamples = 1\nvalue = [1, 0]\nclass = No Disease"] ;
18 -> 20 ;
21 [label="Age <= 63.5\ngini = 0.117\nsamples = 16\nvalue = [1, 15]\nclass = Disease"] ;
3 -> 21 ;
22 [label="gini = 0.0\nsamples = 15\nvalue = [0, 15]\nclass = Disease"] ;
21 -> 22 ;
23 [label="gini = 0.0\nsamples = 1\nvalue = [1, 0]\nclass = No Disease"] ;
21 -> 23 ;
24 [label="MaxHR <= 175.5\ngini = 0.113\nsamples = 315\nvalue = [19, 296]\nclass = Disease"] ;
2 -> 24 ;
25 [label="Oldpeak <= 0.15\ngini = 0.108\nsamples = 313\nvalue = [18, 295]\nclass = Disease"] ;
24 -> 25 ;
26 [label="gini = 0.0\nsamples = 69\nvalue = [0, 69]\nclass = Disease"] ;
25 -> 26 ;
27 [label="Oldpeak <= 0.55\ngini = 0.137\nsamples = 244\nvalue = [18, 226]\nclass = Disease"] ;
25 -> 27 ;
28 [label="Cholesterol <= 189.0\ngini = 0.48\nsamples = 15\nvalue = [6, 9]\nclass = Disease"] ;
27 -> 28 ;
29 [label="gini = 0.0\nsamples = 6\nvalue = [0, 6]\nclass = Disease"] ;
28 -> 29 ;
30 [label="MaxHR <= 162.0\ngini = 0.444\nsamples = 9\nvalue = [6, 3]\nclass = No Disease"] ;
28 -> 30 ;
31 [label="Cholesterol <= 208.0\ngini = 0.245\nsamples = 7\nvalue = [6, 1]\nclass = No Disease"] ;
30 -> 31 ;
32 [label="MaxHR <= 141.5\ngini = 0.5\nsamples = 2\nvalue = [1, 1]\nclass = No Disease"] ;
31 -> 32 ;
33 [label="gini = 0.0\nsamples = 1\nvalue = [0, 1]\nclass = Disease"] ;
32 -> 33 ;
34 [label="gini = 0.0\nsamples = 1\nvalue = [1, 0]\nclass = No Disease"] ;
32 -> 34 ;
35 [label="gini = 0.0\nsamples = 5\nvalue = [5, 0]\nclass = No Disease"] ;
31 -> 35 ;
36 [label="gini = 0.0\nsamples = 2\nvalue = [0, 2]\nclass = Disease"] ;
30 -> 36 ;
37 [label="Age <= 74.5\ngini = 0.099\nsamples = 229\nvalue = [12, 217]\nclass = Disease"] ;
27 -> 37 ;
38 [label="MaxHR <= 70.0\ngini = 0.092\nsamples = 227\nvalue = [11, 216]\nclass = Disease"] ;
37 -> 38 ;
39 [label="Cholesterol <= 229.0\ngini = 0.5\nsamples = 2\nvalue = [1, 1]\nclass = No Disease"] ;
38 -> 39 ;
40 [label="gini = 0.0\nsamples = 1\nvalue = [0, 1]\nclass = Disease"] ;
39 -> 40 ;
41 [label="gini = 0.0\nsamples = 1\nvalue = [1, 0]\nclass = No Disease"] ;
39 -> 41 ;
42 [label="FastingBS <= 0.5\ngini = 0.085\nsamples = 225\nvalue = [10, 215]\nclass = Disease"] ;
38 -> 42 ;
43 [label="MaxHR <= 147.5\ngini = 0.118\nsamples = 159\nvalue = [10, 149]\nclass = Disease"] ;
42 -> 43 ;
44 [label="Oldpeak <= 1.55\ngini = 0.1\nsamples = 152\nvalue = [8, 144]\nclass = Disease"] ;
43 -> 44 ;
45 [label="MaxHR <= 125.5\ngini = 0.177\nsamples = 61\nvalue = [6, 55]\nclass = Disease"] ;
44 -> 45 ;
46 [label="encoded_RestingECG <= 1.5\ngini = 0.091\nsamples = 42\nvalue = [2, 40]\nclass = Disease"] ;
45 -> 46 ;
47 [label="gini = 0.0\nsamples = 31\nvalue = [0, 31]\nclass = Disease"] ;
46 -> 47 ;
48 [label="encoded_ExerciseAngina <= 0.5\ngini = 0.298\nsamples = 11\nvalue = [2, 9]\nclass = Disease"] ;
46 -> 48 ;
49 [label="gini = 0.0\nsamples = 1\nvalue = [1, 0]\nclass = No Disease"] ;
48 -> 49 ;
50 [label="MaxHR <= 98.0\ngini = 0.18\nsamples = 10\nvalue = [1, 9]\nclass = Disease"] ;
48 -> 50 ;
51 [label="Age <= 54.5\ngini = 0.5\nsamples = 2\nvalue = [1, 1]\nclass = No Disease"] ;
50 -> 51 ;
52 [label="gini = 0.0\nsamples = 1\nvalue = [0, 1]\nclass = Disease"] ;
51 -> 52 ;
53 [label="gini = 0.0\nsamples = 1\nvalue = [1, 0]\nclass = No Disease"] ;
51 -> 53 ;
54 [label="gini = 0.0\nsamples = 8\nvalue = [0, 8]\nclass = Disease"] ;
50 -> 54 ;
55 [label="Age <= 49.5\ngini = 0.332\nsamples = 19\nvalue = [4, 15]\nclass = Disease"] ;
45 -> 55 ;
56 [label="Cholesterol <= 236.0\ngini = 0.49\nsamples = 7\nvalue = [3, 4]\nclass = Disease"] ;
55 -> 56 ;
57 [label="MaxHR <= 129.0\ngini = 0.32\nsamples = 5\nvalue = [1, 4]\nclass = Disease"] ;
56 -> 57 ;
58 [label="gini = 0.0\nsamples = 1\nvalue = [1, 0]\nclass = No Disease"] ;
57 -> 58 ;
59 [label="gini = 0.0\nsamples = 4\nvalue = [0, 4]\nclass = Disease"] ;
57 -> 59 ;
60 [label="gini = 0.0\nsamples = 2\nvalue = [2, 0]\nclass = No Disease"] ;
56 -> 60 ;
61 [label="Cholesterol <= 209.5\ngini = 0.153\nsamples = 12\nvalue = [1, 11]\nclass = Disease"] ;
55 -> 61 ;
62 [label="Cholesterol <= 200.5\ngini = 0.444\nsamples = 3\nvalue = [1, 2]\nclass = Disease"] ;
61 -> 62 ;
63 [label="gini = 0.0\nsamples = 2\nvalue = [0, 2]\nclass = Disease"] ;
62 -> 63 ;
64 [label="gini = 0.0\nsamples = 1\nvalue = [1, 0]\nclass = No Disease"] ;
62 -> 64 ;
65 [label="gini = 0.0\nsamples = 9\nvalue = [0, 9]\nclass = Disease"] ;
61 -> 65 ;
66 [label="MaxHR <= 140.5\ngini = 0.043\nsamples = 91\nvalue = [2, 89]\nclass = Disease"] ;
44 -> 66 ;
67 [label="encoded_RestingECG <= 1.5\ngini = 0.024\nsamples = 83\nvalue = [1, 82]\nclass = Disease"] ;
66 -> 67 ;
68 [label="gini = 0.0\nsamples = 66\nvalue = [0, 66]\nclass = Disease"] ;
67 -> 68 ;
69 [label="MaxHR <= 113.5\ngini = 0.111\nsamples = 17\nvalue = [1, 16]\nclass = Disease"] ;
67 -> 69 ;
70 [label="MaxHR <= 108.0\ngini = 0.375\nsamples = 4\nvalue = [1, 3]\nclass = Disease"] ;
69 -> 70 ;
71 [label="gini = 0.0\nsamples = 2\nvalue = [0, 2]\nclass = Disease"] ;
70 -> 71 ;
72 [label="Age <= 58.0\ngini = 0.5\nsamples = 2\nvalue = [1, 1]\nclass = No Disease"] ;
70 -> 72 ;
73 [label="gini = 0.0\nsamples = 1\nvalue = [1, 0]\nclass = No Disease"] ;
72 -> 73 ;
74 [label="gini = 0.0\nsamples = 1\nvalue = [0, 1]\nclass = Disease"] ;
72 -> 74 ;
75 [label="gini = 0.0\nsamples = 13\nvalue = [0, 13]\nclass = Disease"] ;
69 -> 75 ;
76 [label="encoded_ST_Slope <= 0.5\ngini = 0.219\nsamples = 8\nvalue = [1, 7]\nclass = Disease"] ;
66 -> 76 ;
77 [label="Age <= 48.5\ngini = 0.5\nsamples = 2\nvalue = [1, 1]\nclass = No Disease"] ;
76 -> 77 ;
78 [label="gini = 0.0\nsamples = 1\nvalue = [0, 1]\nclass = Disease"] ;
77 -> 78 ;
79 [label="gini = 0.0\nsamples = 1\nvalue = [1, 0]\nclass = No Disease"] ;
77 -> 79 ;
80 [label="gini = 0.0\nsamples = 6\nvalue = [0, 6]\nclass = Disease"] ;
76 -> 80 ;
81 [label="Oldpeak <= 1.75\ngini = 0.408\nsamples = 7\nvalue = [2, 5]\nclass = Disease"] ;
43 -> 81 ;
82 [label="gini = 0.0\nsamples = 3\nvalue = [0, 3]\nclass = Disease"] ;
81 -> 82 ;
83 [label="encoded_RestingECG <= 0.5\ngini = 0.5\nsamples = 4\nvalue = [2, 2]\nclass = No Disease"] ;
81 -> 83 ;
84 [label="gini = 0.0\nsamples = 1\nvalue = [1, 0]\nclass = No Disease"] ;
83 -> 84 ;
85 [label="Oldpeak <= 2.5\ngini = 0.444\nsamples = 3\nvalue = [1, 2]\nclass = Disease"] ;
83 -> 85 ;
86 [label="gini = 0.0\nsamples = 1\nvalue = [1, 0]\nclass = No Disease"] ;
85 -> 86 ;
87 [label="gini = 0.0\nsamples = 2\nvalue = [0, 2]\nclass = Disease"] ;
85 -> 87 ;
88 [label="gini = 0.0\nsamples = 66\nvalue = [0, 66]\nclass = Disease"] ;
42 -> 88 ;
89 [label="encoded_ST_Slope <= 0.5\ngini = 0.5\nsamples = 2\nvalue = [1, 1]\nclass = No Disease"] ;
37 -> 89 ;
90 [label="gini = 0.0\nsamples = 1\nvalue = [1, 0]\nclass = No Disease"] ;
89 -> 90 ;
91 [label="gini = 0.0\nsamples = 1\nvalue = [0, 1]\nclass = Disease"] ;
89 -> 91 ;
92 [label="MaxHR <= 181.5\ngini = 0.5\nsamples = 2\nvalue = [1, 1]\nclass = No Disease"] ;
24 -> 92 ;
93 [label="gini = 0.0\nsamples = 1\nvalue = [1, 0]\nclass = No Disease"] ;
92 -> 93 ;
94 [label="gini = 0.0\nsamples = 1\nvalue = [0, 1]\nclass = Disease"] ;
92 -> 94 ;
95 [label="encoded_sex <= 0.5\ngini = 0.47\nsamples = 159\nvalue = [60, 99]\nclass = Disease"] ;
1 -> 95 ;
96 [label="Oldpeak <= 1.25\ngini = 0.397\nsamples = 33\nvalue = [24, 9]\nclass = No Disease"] ;
95 -> 96 ;
97 [label="Age <= 46.0\ngini = 0.483\nsamples = 22\nvalue = [13, 9]\nclass = No Disease"] ;
96 -> 97 ;
98 [label="gini = 0.0\nsamples = 7\nvalue = [7, 0]\nclass = No Disease"] ;
97 -> 98 ;
99 [label="Age <= 64.0\ngini = 0.48\nsamples = 15\nvalue = [6, 9]\nclass = Disease"] ;
97 -> 99 ;
100 [label="encoded_ExerciseAngina <= 0.5\ngini = 0.426\nsamples = 13\nvalue = [4, 9]\nclass = Disease"] ;
99 -> 100 ;
101 [label="FastingBS <= 0.5\ngini = 0.48\nsamples = 10\nvalue = [4, 6]\nclass = Disease"] ;
100 -> 101 ;
102 [label="Cholesterol <= 184.0\ngini = 0.5\nsamples = 8\nvalue = [4, 4]\nclass = No Disease"] ;
101 -> 102 ;
103 [label="gini = 0.0\nsamples = 1\nvalue = [0, 1]\nclass = Disease"] ;
102 -> 103 ;
104 [label="Cholesterol <= 216.0\ngini = 0.49\nsamples = 7\nvalue = [4, 3]\nclass = No Disease"] ;
102 -> 104 ;
105 [label="gini = 0.0\nsamples = 2\nvalue = [2, 0]\nclass = No Disease"] ;
104 -> 105 ;
106 [label="Cholesterol <= 267.0\ngini = 0.48\nsamples = 5\nvalue = [2, 3]\nclass = Disease"] ;
104 -> 106 ;
107 [label="gini = 0.0\nsamples = 2\nvalue = [0, 2]\nclass = Disease"] ;
106 -> 107 ;
108 [label="Cholesterol <= 275.0\ngini = 0.444\nsamples = 3\nvalue = [2, 1]\nclass = No Disease"] ;
106 -> 108 ;
109 [label="gini = 0.0\nsamples = 1\nvalue = [1, 0]\nclass = No Disease"] ;
108 -> 109 ;
110 [label="encoded_ChestPainType <= 2.0\ngini = 0.5\nsamples = 2\nvalue = [1, 1]\nclass = No Disease"] ;
108 -> 110 ;
111 [label="gini = 0.0\nsamples = 1\nvalue = [0, 1]\nclass = Disease"] ;
110 -> 111 ;
112 [label="gini = 0.0\nsamples = 1\nvalue = [1, 0]\nclass = No Disease"] ;
110 -> 112 ;
113 [label="gini = 0.0\nsamples = 2\nvalue = [0, 2]\nclass = Disease"] ;
101 -> 113 ;
114 [label="gini = 0.0\nsamples = 3\nvalue = [0, 3]\nclass = Disease"] ;
100 -> 114 ;
115 [label="gini = 0.0\nsamples = 2\nvalue = [2, 0]\nclass = No Disease"] ;
99 -> 115 ;
116 [label="gini = 0.0\nsamples = 11\nvalue = [11, 0]\nclass = No Disease"] ;
96 -> 116 ;
117 [label="MaxHR <= 136.5\ngini = 0.408\nsamples = 126\nvalue = [36, 90]\nclass = Disease"] ;
95 -> 117 ;
118 [label="encoded_ExerciseAngina <= 0.5\ngini = 0.203\nsamples = 61\nvalue = [7, 54]\nclass = Disease"] ;
117 -> 118 ;
119 [label="Age <= 43.0\ngini = 0.33\nsamples = 24\nvalue = [5, 19]\nclass = Disease"] ;
118 -> 119 ;
120 [label="gini = 0.0\nsamples = 1\nvalue = [1, 0]\nclass = No Disease"] ;
119 -> 120 ;
121 [label="Age <= 68.5\ngini = 0.287\nsamples = 23\nvalue = [4, 19]\nclass = Disease"] ;
119 -> 121 ;
122 [label="encoded_ST_Slope <= 0.5\ngini = 0.198\nsamples = 18\nvalue = [2, 16]\nclass = Disease"] ;
121 -> 122 ;
123 [label="Cholesterol <= 100.0\ngini = 0.5\nsamples = 2\nvalue = [1, 1]\nclass = No Disease"] ;
122 -> 123 ;
124 [label="gini = 0.0\nsamples = 1\nvalue = [1, 0]\nclass = No Disease"] ;
123 -> 124 ;
125 [label="gini = 0.0\nsamples = 1\nvalue = [0, 1]\nclass = Disease"] ;
123 -> 125 ;
126 [label="MaxHR <= 97.5\ngini = 0.117\nsamples = 16\nvalue = [1, 15]\nclass = Disease"] ;
122 -> 126 ;
127 [label="MaxHR <= 96.0\ngini = 0.375\nsamples = 4\nvalue = [1, 3]\nclass = Disease"] ;
126 -> 127 ;
128 [label="gini = 0.0\nsamples = 3\nvalue = [0, 3]\nclass = Disease"] ;
127 -> 128 ;
129 [label="gini = 0.0\nsamples = 1\nvalue = [1, 0]\nclass = No Disease"] ;
127 -> 129 ;
130 [label="gini = 0.0\nsamples = 12\nvalue = [0, 12]\nclass = Disease"] ;
126 -> 130 ;
131 [label="Oldpeak <= 2.05\ngini = 0.48\nsamples = 5\nvalue = [2, 3]\nclass = Disease"] ;
121 -> 131 ;
132 [label="Age <= 73.0\ngini = 0.444\nsamples = 3\nvalue = [2, 1]\nclass = No Disease"] ;
131 -> 132 ;
133 [label="gini = 0.0\nsamples = 2\nvalue = [2, 0]\nclass = No Disease"] ;
132 -> 133 ;
134 [label="gini = 0.0\nsamples = 1\nvalue = [0, 1]\nclass = Disease"] ;
132 -> 134 ;
135 [label="gini = 0.0\nsamples = 2\nvalue = [0, 2]\nclass = Disease"] ;
131 -> 135 ;
136 [label="Cholesterol <= 317.0\ngini = 0.102\nsamples = 37\nvalue = [2, 35]\nclass = Disease"] ;
118 -> 136 ;
137 [label="encoded_RestingECG <= 0.5\ngini = 0.057\nsamples = 34\nvalue = [1, 33]\nclass = Disease"] ;
136 -> 137 ;
138 [label="Age <= 64.5\ngini = 0.32\nsamples = 5\nvalue = [1, 4]\nclass = Disease"] ;
137 -> 138 ;
139 [label="gini = 0.0\nsamples = 4\nvalue = [0, 4]\nclass = Disease"] ;
138 -> 139 ;
140 [label="gini = 0.0\nsamples = 1\nvalue = [1, 0]\nclass = No Disease"] ;
138 -> 140 ;
141 [label="gini = 0.0\nsamples = 29\nvalue = [0, 29]\nclass = Disease"] ;
137 -> 141 ;
142 [label="Cholesterol <= 327.5\ngini = 0.444\nsamples = 3\nvalue = [1, 2]\nclass = Disease"] ;
136 -> 142 ;
143 [label="gini = 0.0\nsamples = 1\nvalue = [1, 0]\nclass = No Disease"] ;
142 -> 143 ;
144 [label="gini = 0.0\nsamples = 2\nvalue = [0, 2]\nclass = Disease"] ;
142 -> 144 ;
145 [label="encoded_ST_Slope <= 0.5\ngini = 0.494\nsamples = 65\nvalue = [29, 36]\nclass = Disease"] ;
117 -> 145 ;
146 [label="encoded_ChestPainType <= 1.5\ngini = 0.219\nsamples = 8\nvalue = [7, 1]\nclass = No Disease"] ;
145 -> 146 ;
147 [label="Age <= 52.0\ngini = 0.5\nsamples = 2\nvalue = [1, 1]\nclass = No Disease"] ;
146 -> 147 ;
148 [label="gini = 0.0\nsamples = 1\nvalue = [0, 1]\nclass = Disease"] ;
147 -> 148 ;
149 [label="gini = 0.0\nsamples = 1\nvalue = [1, 0]\nclass = No Disease"] ;
147 -> 149 ;
150 [label="gini = 0.0\nsamples = 6\nvalue = [6, 0]\nclass = No Disease"] ;
146 -> 150 ;
151 [label="Cholesterol <= 249.5\ngini = 0.474\nsamples = 57\nvalue = [22, 35]\nclass = Disease"] ;
145 -> 151 ;
152 [label="encoded_ChestPainType <= 1.5\ngini = 0.5\nsamples = 38\nvalue = [19, 19]\nclass = No Disease"] ;
151 -> 152 ;
153 [label="gini = 0.0\nsamples = 5\nvalue = [5, 0]\nclass = No Disease"] ;
152 -> 153 ;
154 [label="Cholesterol <= 238.5\ngini = 0.489\nsamples = 33\nvalue = [14, 19]\nclass = Disease"] ;
152 -> 154 ;
155 [label="Age <= 61.5\ngini = 0.452\nsamples = 29\nvalue = [10, 19]\nclass = Disease"] ;
154 -> 155 ;
156 [label="Cholesterol <= 228.5\ngini = 0.375\nsamples = 24\nvalue = [6, 18]\nclass = Disease"] ;
155 -> 156 ;
157 [label="Cholesterol <= 221.0\ngini = 0.457\nsamples = 17\nvalue = [6, 11]\nclass = Disease"] ;
156 -> 157 ;
158 [label="encoded_RestingECG <= 0.5\ngini = 0.391\nsamples = 15\nvalue = [4, 11]\nclass = Disease"] ;
157 -> 158 ;
159 [label="Oldpeak <= 2.5\ngini = 0.375\nsamples = 4\nvalue = [3, 1]\nclass = No Disease"] ;
158 -> 159 ;
160 [label="gini = 0.0\nsamples = 3\nvalue = [3, 0]\nclass = No Disease"] ;
159 -> 160 ;
161 [label="gini = 0.0\nsamples = 1\nvalue = [0, 1]\nclass = Disease"] ;
159 -> 161 ;
162 [label="Age <= 59.5\ngini = 0.165\nsamples = 11\nvalue = [1, 10]\nclass = Disease"] ;
158 -> 162 ;
163 [label="gini = 0.0\nsamples = 10\nvalue = [0, 10]\nclass = Disease"] ;
162 -> 163 ;
164 [label="gini = 0.0\nsamples = 1\nvalue = [1, 0]\nclass = No Disease"] ;
162 -> 164 ;
165 [label="gini = 0.0\nsamples = 2\nvalue = [2, 0]\nclass = No Disease"] ;
157 -> 165 ;
166 [label="gini = 0.0\nsamples = 7\nvalue = [0, 7]\nclass = Disease"] ;
156 -> 166 ;
167 [label="Age <= 65.5\ngini = 0.32\nsamples = 5\nvalue = [4, 1]\nclass = No Disease"] ;
155 -> 167 ;
168 [label="gini = 0.0\nsamples = 4\nvalue = [4, 0]\nclass = No Disease"] ;
167 -> 168 ;
169 [label="gini = 0.0\nsamples = 1\nvalue = [0, 1]\nclass = Disease"] ;
167 -> 169 ;
170 [label="gini = 0.0\nsamples = 4\nvalue = [4, 0]\nclass = No Disease"] ;
154 -> 170 ;
171 [label="MaxHR <= 176.5\ngini = 0.266\nsamples = 19\nvalue = [3, 16]\nclass = Disease"] ;
151 -> 171 ;
172 [label="Oldpeak <= 0.45\ngini = 0.111\nsamples = 17\nvalue = [1, 16]\nclass = Disease"] ;
171 -> 172 ;
173 [label="Oldpeak <= 0.3\ngini = 0.32\nsamples = 5\nvalue = [1, 4]\nclass = Disease"] ;
172 -> 173 ;
174 [label="gini = 0.0\nsamples = 4\nvalue = [0, 4]\nclass = Disease"] ;
173 -> 174 ;
175 [label="gini = 0.0\nsamples = 1\nvalue = [1, 0]\nclass = No Disease"] ;
173 -> 175 ;
176 [label="gini = 0.0\nsamples = 12\nvalue = [0, 12]\nclass = Disease"] ;
172 -> 176 ;
177 [label="gini = 0.0\nsamples = 2\nvalue = [2, 0]\nclass = No Disease"] ;
171 -> 177 ;
178 [label="Cholesterol <= 42.5\ngini = 0.317\nsamples = 395\nvalue = [317, 78]\nclass = No Disease"] ;
0 -> 178 [labeldistance=2.5, labelangle=-45, headlabel="False"] ;
179 [label="FastingBS <= 0.5\ngini = 0.405\nsamples = 46\nvalue = [13, 33]\nclass = Disease"] ;
178 -> 179 ;
180 [label="MaxHR <= 102.5\ngini = 0.491\nsamples = 23\nvalue = [13, 10]\nclass = No Disease"] ;
179 -> 180 ;
181 [label="gini = 0.0\nsamples = 3\nvalue = [0, 3]\nclass = Disease"] ;
180 -> 181 ;
182 [label="MaxHR <= 119.0\ngini = 0.455\nsamples = 20\nvalue = [13, 7]\nclass = No Disease"] ;
180 -> 182 ;
183 [label="gini = 0.0\nsamples = 4\nvalue = [4, 0]\nclass = No Disease"] ;
182 -> 183 ;
184 [label="MaxHR <= 127.0\ngini = 0.492\nsamples = 16\nvalue = [9, 7]\nclass = No Disease"] ;
182 -> 184 ;
185 [label="Oldpeak <= -0.25\ngini = 0.32\nsamples = 5\nvalue = [1, 4]\nclass = Disease"] ;
184 -> 185 ;
186 [label="gini = 0.0\nsamples = 1\nvalue = [1, 0]\nclass = No Disease"] ;
185 -> 186 ;
187 [label="gini = 0.0\nsamples = 4\nvalue = [0, 4]\nclass = Disease"] ;
185 -> 187 ;
188 [label="Age <= 53.5\ngini = 0.397\nsamples = 11\nvalue = [8, 3]\nclass = No Disease"] ;
184 -> 188 ;
189 [label="encoded_RestingECG <= 1.5\ngini = 0.48\nsamples = 5\nvalue = [2, 3]\nclass = Disease"] ;
188 -> 189 ;
190 [label="gini = 0.0\nsamples = 2\nvalue = [2, 0]\nclass = No Disease"] ;
189 -> 190 ;
191 [label="gini = 0.0\nsamples = 3\nvalue = [0, 3]\nclass = Disease"] ;
189 -> 191 ;
192 [label="gini = 0.0\nsamples = 6\nvalue = [6, 0]\nclass = No Disease"] ;
188 -> 192 ;
193 [label="gini = 0.0\nsamples = 23\nvalue = [0, 23]\nclass = Disease"] ;
179 -> 193 ;
194 [label="encoded_ChestPainType <= 0.5\ngini = 0.225\nsamples = 349\nvalue = [304, 45]\nclass = No Disease"] ;
178 -> 194 ;
195 [label="encoded_ExerciseAngina <= 0.5\ngini = 0.451\nsamples = 99\nvalue = [65, 34]\nclass = No Disease"] ;
194 -> 195 ;
196 [label="MaxHR <= 151.5\ngini = 0.317\nsamples = 71\nvalue = [57, 14]\nclass = No Disease"] ;
195 -> 196 ;
197 [label="Oldpeak <= 0.6\ngini = 0.097\nsamples = 39\nvalue = [37, 2]\nclass = No Disease"] ;
196 -> 197 ;
198 [label="gini = 0.0\nsamples = 34\nvalue = [34, 0]\nclass = No Disease"] ;
197 -> 198 ;
199 [label="MaxHR <= 139.0\ngini = 0.48\nsamples = 5\nvalue = [3, 2]\nclass = No Disease"] ;
197 -> 199 ;
200 [label="gini = 0.0\nsamples = 3\nvalue = [3, 0]\nclass = No Disease"] ;
199 -> 200 ;
201 [label="gini = 0.0\nsamples = 2\nvalue = [0, 2]\nclass = Disease"] ;
199 -> 201 ;
202 [label="Age <= 57.5\ngini = 0.469\nsamples = 32\nvalue = [20, 12]\nclass = No Disease"] ;
196 -> 202 ;
203 [label="Cholesterol <= 232.0\ngini = 0.375\nsamples = 24\nvalue = [18, 6]\nclass = No Disease"] ;
202 -> 203 ;
204 [label="Age <= 50.0\ngini = 0.486\nsamples = 12\nvalue = [7, 5]\nclass = No Disease"] ;
203 -> 204 ;
205 [label="encoded_RestingECG <= 0.5\ngini = 0.42\nsamples = 10\nvalue = [7, 3]\nclass = No Disease"] ;
204 -> 205 ;
206 [label="MaxHR <= 181.5\ngini = 0.444\nsamples = 3\nvalue = [1, 2]\nclass = Disease"] ;
205 -> 206 ;
207 [label="gini = 0.0\nsamples = 2\nvalue = [0, 2]\nclass = Disease"] ;
206 -> 207 ;
208 [label="gini = 0.0\nsamples = 1\nvalue = [1, 0]\nclass = No Disease"] ;
206 -> 208 ;
209 [label="MaxHR <= 179.5\ngini = 0.245\nsamples = 7\nvalue = [6, 1]\nclass = No Disease"] ;
205 -> 209 ;
210 [label="gini = 0.0\nsamples = 4\nvalue = [4, 0]\nclass = No Disease"] ;
209 -> 210 ;
211 [label="MaxHR <= 181.5\ngini = 0.444\nsamples = 3\nvalue = [2, 1]\nclass = No Disease"] ;
209 -> 211 ;
212 [label="gini = 0.0\nsamples = 1\nvalue = [0, 1]\nclass = Disease"] ;
211 -> 212 ;
213 [label="gini = 0.0\nsamples = 2\nvalue = [2, 0]\nclass = No Disease"] ;
211 -> 213 ;
214 [label="gini = 0.0\nsamples = 2\nvalue = [0, 2]\nclass = Disease"] ;
204 -> 214 ;
215 [label="MaxHR <= 154.0\ngini = 0.153\nsamples = 12\nvalue = [11, 1]\nclass = No Disease"] ;
203 -> 215 ;
216 [label="gini = 0.0\nsamples = 1\nvalue = [0, 1]\nclass = Disease"] ;
215 -> 216 ;
217 [label="gini = 0.0\nsamples = 11\nvalue = [11, 0]\nclass = No Disease"] ;
215 -> 217 ;
218 [label="MaxHR <= 176.5\ngini = 0.375\nsamples = 8\nvalue = [2, 6]\nclass = Disease"] ;
202 -> 218 ;
219 [label="Age <= 61.5\ngini = 0.245\nsamples = 7\nvalue = [1, 6]\nclass = Disease"] ;
218 -> 219 ;
220 [label="gini = 0.0\nsamples = 5\nvalue = [0, 5]\nclass = Disease"] ;
219 -> 220 ;
221 [label="MaxHR <= 160.5\ngini = 0.5\nsamples = 2\nvalue = [1, 1]\nclass = No Disease"] ;
219 -> 221 ;
222 [label="gini = 0.0\nsamples = 1\nvalue = [0, 1]\nclass = Disease"] ;
221 -> 222 ;
223 [label="gini = 0.0\nsamples = 1\nvalue = [1, 0]\nclass = No Disease"] ;
221 -> 223 ;
224 [label="gini = 0.0\nsamples = 1\nvalue = [1, 0]\nclass = No Disease"] ;
218 -> 224 ;
225 [label="Oldpeak <= 0.7\ngini = 0.408\nsamples = 28\nvalue = [8, 20]\nclass = Disease"] ;
195 -> 225 ;
226 [label="Age <= 65.0\ngini = 0.49\nsamples = 14\nvalue = [8, 6]\nclass = No Disease"] ;
225 -> 226 ;
227 [label="MaxHR <= 145.0\ngini = 0.444\nsamples = 12\nvalue = [8, 4]\nclass = No Disease"] ;
226 -> 227 ;
228 [label="gini = 0.0\nsamples = 4\nvalue = [4, 0]\nclass = No Disease"] ;
227 -> 228 ;
229 [label="MaxHR <= 162.5\ngini = 0.5\nsamples = 8\nvalue = [4, 4]\nclass = No Disease"] ;
227 -> 229 ;
230 [label="Cholesterol <= 303.5\ngini = 0.32\nsamples = 5\nvalue = [1, 4]\nclass = Disease"] ;
229 -> 230 ;
231 [label="gini = 0.0\nsamples = 4\nvalue = [0, 4]\nclass = Disease"] ;
230 -> 231 ;
232 [label="gini = 0.0\nsamples = 1\nvalue = [1, 0]\nclass = No Disease"] ;
230 -> 232 ;
233 [label="gini = 0.0\nsamples = 3\nvalue = [3, 0]\nclass = No Disease"] ;
229 -> 233 ;
234 [label="gini = 0.0\nsamples = 2\nvalue = [0, 2]\nclass = Disease"] ;
226 -> 234 ;
235 [label="gini = 0.0\nsamples = 14\nvalue = [0, 14]\nclass = Disease"] ;
225 -> 235 ;
236 [label="Oldpeak <= 2.25\ngini = 0.084\nsamples = 250\nvalue = [239, 11]\nclass = No Disease"] ;
194 -> 236 ;
237 [label="Age <= 56.5\ngini = 0.07\nsamples = 248\nvalue = [239, 9]\nclass = No Disease"] ;
236 -> 237 ;
238 [label="MaxHR <= 193.5\ngini = 0.03\nsamples = 200\nvalue = [197, 3]\nclass = No Disease"] ;
237 -> 238 ;
239 [label="Cholesterol <= 153.0\ngini = 0.02\nsamples = 198\nvalue = [196, 2]\nclass = No Disease"] ;
238 -> 239 ;
240 [label="Oldpeak <= 0.4\ngini = 0.32\nsamples = 5\nvalue = [4, 1]\nclass = No Disease"] ;
239 -> 240 ;
241 [label="gini = 0.0\nsamples = 4\nvalue = [4, 0]\nclass = No Disease"] ;
240 -> 241 ;
242 [label="gini = 0.0\nsamples = 1\nvalue = [0, 1]\nclass = Disease"] ;
240 -> 242 ;
243 [label="Cholesterol <= 242.0\ngini = 0.01\nsamples = 193\nvalue = [192, 1]\nclass = No Disease"] ;
239 -> 243 ;
244 [label="gini = 0.0\nsamples = 115\nvalue = [115, 0]\nclass = No Disease"] ;
243 -> 244 ;
245 [label="Cholesterol <= 243.5\ngini = 0.025\nsamples = 78\nvalue = [77, 1]\nclass = No Disease"] ;
243 -> 245 ;
246 [label="Age <= 38.0\ngini = 0.5\nsamples = 2\nvalue = [1, 1]\nclass = No Disease"] ;
245 -> 246 ;
247 [label="gini = 0.0\nsamples = 1\nvalue = [1, 0]\nclass = No Disease"] ;
246 -> 247 ;
248 [label="gini = 0.0\nsamples = 1\nvalue = [0, 1]\nclass = Disease"] ;
246 -> 248 ;
249 [label="gini = 0.0\nsamples = 76\nvalue = [76, 0]\nclass = No Disease"] ;
245 -> 249 ;
250 [label="Age <= 41.5\ngini = 0.5\nsamples = 2\nvalue = [1, 1]\nclass = No Disease"] ;
238 -> 250 ;
251 [label="gini = 0.0\nsamples = 1\nvalue = [1, 0]\nclass = No Disease"] ;
250 -> 251 ;
252 [label="gini = 0.0\nsamples = 1\nvalue = [0, 1]\nclass = Disease"] ;
250 -> 252 ;
253 [label="Age <= 59.5\ngini = 0.219\nsamples = 48\nvalue = [42, 6]\nclass = No Disease"] ;
237 -> 253 ;
254 [label="encoded_RestingECG <= 0.5\ngini = 0.401\nsamples = 18\nvalue = [13, 5]\nclass = No Disease"] ;
253 -> 254 ;
255 [label="encoded_ChestPainType <= 1.5\ngini = 0.48\nsamples = 5\nvalue = [2, 3]\nclass = Disease"] ;
254 -> 255 ;
256 [label="gini = 0.0\nsamples = 2\nvalue = [0, 2]\nclass = Disease"] ;
255 -> 256 ;
257 [label="MaxHR <= 143.5\ngini = 0.444\nsamples = 3\nvalue = [2, 1]\nclass = No Disease"] ;
255 -> 257 ;
258 [label="gini = 0.0\nsamples = 1\nvalue = [0, 1]\nclass = Disease"] ;
257 -> 258 ;
259 [label="gini = 0.0\nsamples = 2\nvalue = [2, 0]\nclass = No Disease"] ;
257 -> 259 ;
260 [label="encoded_ChestPainType <= 2.5\ngini = 0.26\nsamples = 13\nvalue = [11, 2]\nclass = No Disease"] ;
254 -> 260 ;
261 [label="Cholesterol <= 260.5\ngini = 0.153\nsamples = 12\nvalue = [11, 1]\nclass = No Disease"] ;
260 -> 261 ;
262 [label="gini = 0.0\nsamples = 9\nvalue = [9, 0]\nclass = No Disease"] ;
261 -> 262 ;
263 [label="Age <= 57.5\ngini = 0.444\nsamples = 3\nvalue = [2, 1]\nclass = No Disease"] ;
261 -> 263 ;
264 [label="gini = 0.0\nsamples = 1\nvalue = [0, 1]\nclass = Disease"] ;
263 -> 264 ;
265 [label="gini = 0.0\nsamples = 2\nvalue = [2, 0]\nclass = No Disease"] ;
263 -> 265 ;
266 [label="gini = 0.0\nsamples = 1\nvalue = [0, 1]\nclass = Disease"] ;
260 -> 266 ;
267 [label="Cholesterol <= 326.5\ngini = 0.064\nsamples = 30\nvalue = [29, 1]\nclass = No Disease"] ;
253 -> 267 ;
268 [label="gini = 0.0\nsamples = 27\nvalue = [27, 0]\nclass = No Disease"] ;
267 -> 268 ;
269 [label="encoded_sex <= 0.5\ngini = 0.444\nsamples = 3\nvalue = [2, 1]\nclass = No Disease"] ;
267 -> 269 ;
270 [label="gini = 0.0\nsamples = 2\nvalue = [2, 0]\nclass = No Disease"] ;
269 -> 270 ;
271 [label="gini = 0.0\nsamples = 1\nvalue = [0, 1]\nclass = Disease"] ;
269 -> 271 ;
272 [label="gini = 0.0\nsamples = 2\nvalue = [0, 2]\nclass = Disease"] ;
236 -> 272 ;
}